<?xml version="1.0"?>
<opencv_storage>
<stage7>
  <maxWeakCount>6</maxWeakCount>
  <stageThreshold>-1.0241011381149292e+00</stageThreshold>
  <weakClassifiers>
    <_>
      <internalNodes>
        0 -1 19739 -1.7404181417077780e-03</internalNodes>
      <leafValues>
        5.7738381624221802e-01 -7.6673865318298340e-01</leafValues></_>
    <_>
      <internalNodes>
        0 -1 26558 -4.3061235919594765e-03</internalNodes>
      <leafValues>
        -9.1872733831405640e-01 3.2092410326004028e-01</leafValues></_>
    <_>
      <internalNodes>
        0 -1 55436 -3.8776616565883160e-03</internalNodes>
      <leafValues>
        4.4434481859207153e-01 -5.6855034828186035e-01</leafValues></_>
    <_>
      <internalNodes>
        0 -1 70910 -1.7114789225161076e-03</internalNodes>
      <leafValues>
        4.6456357836723328e-01 -5.7084566354751587e-01</leafValues></_>
    <_>
      <internalNodes>
        0 -1 43847 1.9546359544619918e-04</internalNodes>
      <leafValues>
        2.6893326640129089e-01 -8.7141698598861694e-01</leafValues></_>
    <_>
      <internalNodes>
        0 -1 72380 -6.2610721215605736e-05</internalNodes>
      <leafValues>
        1.8770517408847809e-01 -9.7733885049819946e-01</leafValues></_></weakClassifiers></stage7>
</opencv_storage>
